{"weights":[[0.2860407729626506,-0.3329141426305672],[-0.0314996667518245,0.056855773824821876],[-0.233447968638672,0.32719214080892955],[-0.08995294319125777,0.1395823008638527],[0.23328231808602445,-0.19381884868631408],[-0.042031640596572745,0.02476002243267794],[-0.05449471121176844,0.040486290773439515],[-0.13811866523379515,0.17200306666876064],[-0.12095950924469459,0.1589781224581288],[-0.038894895089860854,0.027608527910772285],[-0.3644425265010222,0.4954799994458955],[-0.09219433974413785,0.032164521514496336],[-0.2124167546315506,0.06379910090909097],[-0.1159857570408798,0.08248166737928814],[-0.2311984664625183,0.2198348354066053],[-0.03137556637017544,0.03997298276661815],[-0.0009623529894309674,-0.01693731270663648],[-0.15647501718017584,0.15924684344115275],[-0.11738374011125488,0.18967973266107602],[-0.05743135784223011,0.05894395866873192],[0.38427721384223823,-0.3640611765760951],[-0.018204588351595524,0.05356053024311441],[-0.33722749252419904,0.3673692985938036],[-0.10123541967332886,0.19846226342567552],[0.38430896385544644,-0.29051125892905966]],"b":[0.11873481935962016,0.2564075419553291]}